digraph Tree {
node [shape=box, style="filled, rounded", color="black", fontname=helvetica] ;
edge [fontname=helvetica] ;
0 [label="V21 <= 0.38\ngini = 0.47\nsamples = 313\nvalue = [313, 197]\nclass = 0", fillcolor="#f5d0b6"] ;
1 [label="V4 <= 1.86\ngini = 0.38\nsamples = 244\nvalue = [298, 100]\nclass = 0", fillcolor="#eeab7b"] ;
0 -> 1 [labeldistance=2.5, labelangle=45, headlabel="True"] ;
2 [label="V16 <= -1.96\ngini = 0.2\nsamples = 198\nvalue = [285, 36]\nclass = 0", fillcolor="#e89152"] ;
1 -> 2 ;
3 [label="gini = 0.0\nsamples = 5\nvalue = [0, 11]\nclass =  1", fillcolor="#399de5"] ;
2 -> 3 ;
4 [label="V20 <= 0.85\ngini = 0.15\nsamples = 193\nvalue = [285, 25]\nclass = 0", fillcolor="#e78c4a"] ;
2 -> 4 ;
5 [label="V3 <= -3.46\ngini = 0.13\nsamples = 190\nvalue = [284, 22]\nclass = 0", fillcolor="#e78b48"] ;
4 -> 5 ;
6 [label="gini = 0.0\nsamples = 1\nvalue = [0, 2]\nclass =  1", fillcolor="#399de5"] ;
5 -> 6 ;
7 [label="V17 <= 0.65\ngini = 0.12\nsamples = 189\nvalue = [284, 20]\nclass = 0", fillcolor="#e78a47"] ;
5 -> 7 ;
8 [label="V19 <= -2.09\ngini = 0.04\nsamples = 152\nvalue = [238, 5]\nclass = 0", fillcolor="#e6843d"] ;
7 -> 8 ;
9 [label="gini = 0.0\nsamples = 1\nvalue = [0, 1]\nclass =  1", fillcolor="#399de5"] ;
8 -> 9 ;
10 [label="V13 <= -1.57\ngini = 0.03\nsamples = 151\nvalue = [238, 4]\nclass = 0", fillcolor="#e5833c"] ;
8 -> 10 ;
11 [label="V14 <= -0.88\ngini = 0.41\nsamples = 5\nvalue = [5, 2]\nclass = 0", fillcolor="#efb388"] ;
10 -> 11 ;
12 [label="gini = 0.0\nsamples = 1\nvalue = [0, 2]\nclass =  1", fillcolor="#399de5"] ;
11 -> 12 ;
13 [label="gini = 0.0\nsamples = 4\nvalue = [5, 0]\nclass = 0", fillcolor="#e58139"] ;
11 -> 13 ;
14 [label="V26 <= 1.15\ngini = 0.02\nsamples = 146\nvalue = [233, 2]\nclass = 0", fillcolor="#e5823b"] ;
10 -> 14 ;
15 [label="V25 <= 0.67\ngini = 0.01\nsamples = 145\nvalue = [233, 1]\nclass = 0", fillcolor="#e5823a"] ;
14 -> 15 ;
16 [label="gini = 0.0\nsamples = 135\nvalue = [223, 0]\nclass = 0", fillcolor="#e58139"] ;
15 -> 16 ;
17 [label="V23 <= -0.12\ngini = 0.17\nsamples = 10\nvalue = [10, 1]\nclass = 0", fillcolor="#e88e4d"] ;
15 -> 17 ;
18 [label="gini = 0.0\nsamples = 8\nvalue = [9, 0]\nclass = 0", fillcolor="#e58139"] ;
17 -> 18 ;
19 [label="V12 <= 0.9\ngini = 0.5\nsamples = 2\nvalue = [1, 1]\nclass = 0", fillcolor="#ffffff"] ;
17 -> 19 ;
20 [label="gini = 0.0\nsamples = 1\nvalue = [0, 1]\nclass =  1", fillcolor="#399de5"] ;
19 -> 20 ;
21 [label="gini = 0.0\nsamples = 1\nvalue = [1, 0]\nclass = 0", fillcolor="#e58139"] ;
19 -> 21 ;
22 [label="gini = 0.0\nsamples = 1\nvalue = [0, 1]\nclass =  1", fillcolor="#399de5"] ;
14 -> 22 ;
23 [label="V5 <= 0.47\ngini = 0.37\nsamples = 37\nvalue = [46, 15]\nclass = 0", fillcolor="#edaa7a"] ;
7 -> 23 ;
24 [label="V23 <= -0.18\ngini = 0.1\nsamples = 24\nvalue = [34, 2]\nclass = 0", fillcolor="#e78845"] ;
23 -> 24 ;
25 [label="V25 <= 0.46\ngini = 0.44\nsamples = 3\nvalue = [4, 2]\nclass = 0", fillcolor="#f2c09c"] ;
24 -> 25 ;
26 [label="gini = 0.0\nsamples = 2\nvalue = [4, 0]\nclass = 0", fillcolor="#e58139"] ;
25 -> 26 ;
27 [label="gini = 0.0\nsamples = 1\nvalue = [0, 2]\nclass =  1", fillcolor="#399de5"] ;
25 -> 27 ;
28 [label="gini = 0.0\nsamples = 21\nvalue = [30, 0]\nclass = 0", fillcolor="#e58139"] ;
24 -> 28 ;
29 [label="V11 <= 1.53\ngini = 0.5\nsamples = 13\nvalue = [12, 13]\nclass =  1", fillcolor="#f0f7fd"] ;
23 -> 29 ;
30 [label="V15 <= -0.95\ngini = 0.43\nsamples = 10\nvalue = [6, 13]\nclass =  1", fillcolor="#94caf1"] ;
29 -> 30 ;
31 [label="gini = 0.0\nsamples = 2\nvalue = [4, 0]\nclass = 0", fillcolor="#e58139"] ;
30 -> 31 ;
32 [label="V28 <= -0.08\ngini = 0.23\nsamples = 8\nvalue = [2, 13]\nclass =  1", fillcolor="#57ace9"] ;
30 -> 32 ;
33 [label="gini = 0.0\nsamples = 2\nvalue = [2, 0]\nclass = 0", fillcolor="#e58139"] ;
32 -> 33 ;
34 [label="gini = 0.0\nsamples = 6\nvalue = [0, 13]\nclass =  1", fillcolor="#399de5"] ;
32 -> 34 ;
35 [label="gini = 0.0\nsamples = 3\nvalue = [6, 0]\nclass = 0", fillcolor="#e58139"] ;
29 -> 35 ;
36 [label="V14 <= -1.64\ngini = 0.38\nsamples = 3\nvalue = [1, 3]\nclass =  1", fillcolor="#7bbeee"] ;
4 -> 36 ;
37 [label="gini = 0.0\nsamples = 1\nvalue = [1, 0]\nclass = 0", fillcolor="#e58139"] ;
36 -> 37 ;
38 [label="gini = 0.0\nsamples = 2\nvalue = [0, 3]\nclass =  1", fillcolor="#399de5"] ;
36 -> 38 ;
39 [label="V3 <= -1.34\ngini = 0.28\nsamples = 46\nvalue = [13, 64]\nclass =  1", fillcolor="#61b1ea"] ;
1 -> 39 ;
40 [label="V7 <= 1.44\ngini = 0.07\nsamples = 29\nvalue = [2, 50]\nclass =  1", fillcolor="#41a1e6"] ;
39 -> 40 ;
41 [label="V10 <= 0.75\ngini = 0.04\nsamples = 28\nvalue = [1, 50]\nclass =  1", fillcolor="#3d9fe6"] ;
40 -> 41 ;
42 [label="gini = 0.0\nsamples = 27\nvalue = [0, 50]\nclass =  1", fillcolor="#399de5"] ;
41 -> 42 ;
43 [label="gini = 0.0\nsamples = 1\nvalue = [1, 0]\nclass = 0", fillcolor="#e58139"] ;
41 -> 43 ;
44 [label="gini = 0.0\nsamples = 1\nvalue = [1, 0]\nclass = 0", fillcolor="#e58139"] ;
40 -> 44 ;
45 [label="scaled_amount <= -0.32\ngini = 0.49\nsamples = 17\nvalue = [11, 14]\nclass =  1", fillcolor="#d5eaf9"] ;
39 -> 45 ;
46 [label="V23 <= 0.09\ngini = 0.24\nsamples = 11\nvalue = [2, 12]\nclass =  1", fillcolor="#5aade9"] ;
45 -> 46 ;
47 [label="gini = 0.0\nsamples = 8\nvalue = [0, 11]\nclass =  1", fillcolor="#399de5"] ;
46 -> 47 ;
48 [label="V28 <= -0.06\ngini = 0.44\nsamples = 3\nvalue = [2, 1]\nclass = 0", fillcolor="#f2c09c"] ;
46 -> 48 ;
49 [label="gini = 0.0\nsamples = 2\nvalue = [2, 0]\nclass = 0", fillcolor="#e58139"] ;
48 -> 49 ;
50 [label="gini = 0.0\nsamples = 1\nvalue = [0, 1]\nclass =  1", fillcolor="#399de5"] ;
48 -> 50 ;
51 [label="V11 <= 1.32\ngini = 0.3\nsamples = 6\nvalue = [9, 2]\nclass = 0", fillcolor="#eb9d65"] ;
45 -> 51 ;
52 [label="gini = 0.0\nsamples = 5\nvalue = [9, 0]\nclass = 0", fillcolor="#e58139"] ;
51 -> 52 ;
53 [label="gini = 0.0\nsamples = 1\nvalue = [0, 2]\nclass =  1", fillcolor="#399de5"] ;
51 -> 53 ;
54 [label="V10 <= -1.11\ngini = 0.23\nsamples = 69\nvalue = [15, 97]\nclass =  1", fillcolor="#58ace9"] ;
0 -> 54 [labeldistance=2.5, labelangle=-45, headlabel="False"] ;
55 [label="gini = 0.0\nsamples = 58\nvalue = [0, 95]\nclass =  1", fillcolor="#399de5"] ;
54 -> 55 ;
56 [label="V13 <= -2.07\ngini = 0.21\nsamples = 11\nvalue = [15, 2]\nclass = 0", fillcolor="#e89253"] ;
54 -> 56 ;
57 [label="gini = 0.0\nsamples = 1\nvalue = [0, 2]\nclass =  1", fillcolor="#399de5"] ;
56 -> 57 ;
58 [label="gini = 0.0\nsamples = 10\nvalue = [15, 0]\nclass = 0", fillcolor="#e58139"] ;
56 -> 58 ;
}